<?xml version="1.0"?>
<opencv_storage>
<cascade>
  <stageType>BOOST</stageType>
  <featureType>HAAR</featureType>
  <height>24</height>
  <width>36</width>
  <stageParams>
    <boostType>GAB</boostType>
    <minHitRate>9.9500000476837158e-01</minHitRate>
    <maxFalseAlarm>5.0000000000000000e-01</maxFalseAlarm>
    <weightTrimRate>9.4999998807907104e-01</weightTrimRate>
    <maxDepth>1</maxDepth>
    <maxWeakCount>100</maxWeakCount></stageParams>
  <featureParams>
    <maxCatCount>0</maxCatCount>
    <featSize>1</featSize>
    <mode>BASIC</mode></featureParams>
  <stageNum>13</stageNum>
  <stages>
    <!-- stage 0 -->
    <_>
      <maxWeakCount>3</maxWeakCount>
      <stageThreshold>-1.1095634698867798e+00</stageThreshold>
      <weakClassifiers>
        <_>
          <internalNodes>
            0 -1 8 6.1020363122224808e-02</internalNodes>
          <leafValues>
            -8.0124223232269287e-01 8.4375000000000000e-01</leafValues></_>
        <_>
          <internalNodes>
            0 -1 45 -2.7419426260166802e-05</internalNodes>
          <leafValues>
            5.5022311210632324e-01 -8.8923054933547974e-01</leafValues></_>
        <_>
          <internalNodes>
            0 -1 41 2.8753415681421757e-03</internalNodes>
          <leafValues>
            -8.5854434967041016e-01 5.8576029539108276e-01</leafValues></_></weakClassifiers></_>
    <!-- stage 1 -->
    <_>
      <maxWeakCount>3</maxWeakCount>
      <stageThreshold>-7.6194894313812256e-01</stageThreshold>
      <weakClassifiers>
        <_>
          <internalNodes>
            0 -1 20 -2.9238989576697350e-02</internalNodes>
          <leafValues>
            6.4102566242218018e-01 -8.5034012794494629e-01</leafValues></_>
        <_>
          <internalNodes>
            0 -1 46 4.7133609768934548e-05</internalNodes>
          <leafValues>
            -7.1616721153259277e-01 7.4404376745223999e-01</leafValues></_>
        <_>
          <internalNodes>
            0 -1 22 -4.9774898798204958e-05</internalNodes>
          <leafValues>
            8.5497033596038818e-01 -6.5565252304077148e-01</leafValues></_></weakClassifiers></_>
    <!-- stage 2 -->
    <_>
      <maxWeakCount>3</maxWeakCount>
      <stageThreshold>-8.0484467744827271e-01</stageThreshold>
      <weakClassifiers>
        <_>
          <internalNodes>
            0 -1 44 -4.6546570956707001e-05</internalNodes>
          <leafValues>
            5.5555558204650879e-01 -8.3333331346511841e-01</leafValues></_>
        <_>
          <internalNodes>
            0 -1 18 5.6500924983993173e-05</internalNodes>
          <leafValues>
            -6.0594815015792847e-01 9.0275347232818604e-01</leafValues></_>
        <_>
          <internalNodes>
            0 -1 39 1.5749540179967880e-03</internalNodes>
          <leafValues>
            -7.5445210933685303e-01 6.8834990262985229e-01</leafValues></_></weakClassifiers></_>
    <!-- stage 3 -->
    <_>
      <maxWeakCount>3</maxWeakCount>
      <stageThreshold>-6.1097204685211182e-01</stageThreshold>
      <weakClassifiers>
        <_>
          <internalNodes>
            0 -1 3 6.2660895287990570e-02</internalNodes>
          <leafValues>
            -6.5714287757873535e-01 8.0000001192092896e-01</leafValues></_>
        <_>
          <internalNodes>
            0 -1 30 -2.9215973615646362e-01</internalNodes>
          <leafValues>
            9.3294215202331543e-01 -4.3603903055191040e-01</leafValues></_>
        <_>
          <internalNodes>
            0 -1 15 1.6004361212253571e-02</internalNodes>
          <leafValues>
            -8.0922621488571167e-01 4.8220983147621155e-01</leafValues></_></weakClassifiers></_>
    <!-- stage 4 -->
    <_>
      <maxWeakCount>3</maxWeakCount>
      <stageThreshold>-6.3248366117477417e-01</stageThreshold>
      <weakClassifiers>
        <_>
          <internalNodes>
            0 -1 1 1.0885068774223328e-01</internalNodes>
          <leafValues>
            -6.7630058526992798e-01 8.0769228935241699e-01</leafValues></_>
        <_>
          <internalNodes>
            0 -1 34 -1.6820691525936127e-02</internalNodes>
          <leafValues>
            6.6725158691406250e-01 -7.0847976207733154e-01</leafValues></_>
        <_>
          <internalNodes>
            0 -1 16 3.2594730146229267e-04</internalNodes>
          <leafValues>
            -5.2401030063629150e-01 7.5229668617248535e-01</leafValues></_></weakClassifiers></_>
    <!-- stage 5 -->
    <_>
      <maxWeakCount>4</maxWeakCount>
      <stageThreshold>-8.2455319166183472e-01</stageThreshold>
      <weakClassifiers>
        <_>
          <internalNodes>
            0 -1 21 7.7153427992016077e-04</internalNodes>
          <leafValues>
            -5.9562844038009644e-01 8.0952382087707520e-01</leafValues></_>
        <_>
          <internalNodes>
            0 -1 26 3.7682768888771534e-03</internalNodes>
          <leafValues>
            -4.5636641979217529e-01 7.9312944412231445e-01</leafValues></_>
        <_>
          <internalNodes>
            0 -1 32 1.4372199075296521e-04</internalNodes>
          <leafValues>
            -4.4413137435913086e-01 7.7309173345565796e-01</leafValues></_>
        <_>
          <internalNodes>
            0 -1 19 5.1249990065116435e-05</internalNodes>
          <leafValues>
            -5.3548604249954224e-01 6.7157304286956787e-01</leafValues></_></weakClassifiers></_>
    <!-- stage 6 -->
    <_>
      <maxWeakCount>4</maxWeakCount>
      <stageThreshold>-7.8871911764144897e-01</stageThreshold>
      <weakClassifiers>
        <_>
          <internalNodes>
            0 -1 17 4.2384467087686062e-03</internalNodes>
          <leafValues>
            -5.8510637283325195e-01 9.4594591856002808e-01</leafValues></_>
        <_>
          <internalNodes>
            0 -1 11 -5.4378369823098183e-03</internalNodes>
          <leafValues>
            9.4958680868148804e-01 -3.4741011261940002e-01</leafValues></_>
        <_>
          <internalNodes>
            0 -1 28 -1.0216733440756798e-02</internalNodes>
          <leafValues>
            5.6844079494476318e-01 -6.2927466630935669e-01</leafValues></_>
        <_>
          <internalNodes>
            0 -1 37 -1.2791361659765244e-03</internalNodes>
          <leafValues>
            7.9893898963928223e-01 -4.2464339733123779e-01</leafValues></_></weakClassifiers></_>
    <!-- stage 7 -->
    <_>
      <maxWeakCount>3</maxWeakCount>
      <stageThreshold>-5.3682929277420044e-01</stageThreshold>
      <weakClassifiers>
        <_>
          <internalNodes>
            0 -1 7 -4.1887588798999786e-02</internalNodes>
          <leafValues>
            7.2549021244049072e-01 -6.4367818832397461e-01</leafValues></_>
        <_>
          <internalNodes>
            0 -1 24 -1.6531203873455524e-03</internalNodes>
          <leafValues>
            6.9103509187698364e-01 -4.3690744042396545e-01</leafValues></_>
        <_>
          <internalNodes>
            0 -1 12 -4.1121847927570343e-02</internalNodes>
          <leafValues>
            5.7718122005462646e-01 -5.8418619632720947e-01</leafValues></_></weakClassifiers></_>
    <!-- stage 8 -->
    <_>
      <maxWeakCount>5</maxWeakCount>
      <stageThreshold>-9.0161907672882080e-01</stageThreshold>
      <weakClassifiers>
        <_>
          <internalNodes>
            0 -1 38 -3.5132672637701035e-02</internalNodes>
          <leafValues>
            9.5238095521926880e-01 -6.2841528654098511e-01</leafValues></_>
        <_>
          <internalNodes>
            0 -1 29 -7.4970368295907974e-03</internalNodes>
          <leafValues>
            7.8718400001525879e-01 -4.9148726463317871e-01</leafValues></_>
        <_>
          <internalNodes>
            0 -1 25 3.0027562752366066e-03</internalNodes>
          <leafValues>
            -4.2915484309196472e-01 7.5764858722686768e-01</leafValues></_>
        <_>
          <internalNodes>
            0 -1 43 -6.3868596043903381e-05</internalNodes>
          <leafValues>
            4.2638039588928223e-01 -8.6046701669692993e-01</leafValues></_>
        <_>
          <internalNodes>
            0 -1 5 -5.0112633034586906e-03</internalNodes>
          <leafValues>
            -9.6432042121887207e-01 3.2110196352005005e-01</leafValues></_></weakClassifiers></_>
    <!-- stage 9 -->
    <_>
      <maxWeakCount>4</maxWeakCount>
      <stageThreshold>-5.9179913997650146e-01</stageThreshold>
      <weakClassifiers>
        <_>
          <internalNodes>
            0 -1 42 2.6679335860535502e-04</internalNodes>
          <leafValues>
            -9.2380952835083008e-01 1.8333333730697632e-01</leafValues></_>
        <_>
          <internalNodes>
            0 -1 35 -8.2673132419586182e-03</internalNodes>
          <leafValues>
            7.2988659143447876e-01 -5.6228649616241455e-01</leafValues></_>
        <_>
          <internalNodes>
            0 -1 13 -2.3056175559759140e-02</internalNodes>
          <leafValues>
            5.6649947166442871e-01 -5.9410065412521362e-01</leafValues></_>
        <_>
          <internalNodes>
            0 -1 6 -1.6096762847155333e-03</internalNodes>
          <leafValues>
            -9.4239652156829834e-01 3.8125464320182800e-01</leafValues></_></weakClassifiers></_>
    <!-- stage 10 -->
    <_>
      <maxWeakCount>2</maxWeakCount>
      <stageThreshold>-1.6401016712188721e-01</stageThreshold>
      <weakClassifiers>
        <_>
          <internalNodes>
            0 -1 14 -3.2494910061359406e-02</internalNodes>
          <leafValues>
            1. -6.0427808761596680e-01</leafValues></_>
        <_>
          <internalNodes>
            0 -1 0 -4.4520674273371696e-03</internalNodes>
          <leafValues>
            -8.9162307977676392e-01 4.4026789069175720e-01</leafValues></_></weakClassifiers></_>
    <!-- stage 11 -->
    <_>
      <maxWeakCount>4</maxWeakCount>
      <stageThreshold>-4.1342434287071228e-01</stageThreshold>
      <weakClassifiers>
        <_>
          <internalNodes>
            0 -1 9 1.1054714024066925e-01</internalNodes>
          <leafValues>
            -6.0000002384185791e-01 8.9999997615814209e-01</leafValues></_>
        <_>
          <internalNodes>
            0 -1 10 -6.6333644092082977e-02</internalNodes>
          <leafValues>
            4.9934259057044983e-01 -7.6575392484664917e-01</leafValues></_>
        <_>
          <internalNodes>
            0 -1 2 -3.4061526093864813e-05</internalNodes>
          <leafValues>
            4.1554516553878784e-01 -8.4762090444564819e-01</leafValues></_>
        <_>
          <internalNodes>
            0 -1 40 -3.3683947549434379e-05</internalNodes>
          <leafValues>
            5.3899836540222168e-01 -7.2831213474273682e-01</leafValues></_></weakClassifiers></_>
    <!-- stage 12 -->
    <_>
      <maxWeakCount>6</maxWeakCount>
      <stageThreshold>-5.3730553388595581e-01</stageThreshold>
      <weakClassifiers>
        <_>
          <internalNodes>
            0 -1 27 -2.2053731977939606e-01</internalNodes>
          <leafValues>
            7.1428573131561279e-01 -6.2500000000000000e-01</leafValues></_>
        <_>
          <internalNodes>
            0 -1 31 -4.2191300541162491e-02</internalNodes>
          <leafValues>
            7.5734031200408936e-01 -4.9782723188400269e-01</leafValues></_>
        <_>
          <internalNodes>
            0 -1 36 -1.9677171076182276e-04</internalNodes>
          <leafValues>
            7.4872571229934692e-01 -4.0915831923484802e-01</leafValues></_>
        <_>
          <internalNodes>
            0 -1 4 2.5003751739859581e-02</internalNodes>
          <leafValues>
            -7.5142645835876465e-01 4.5495706796646118e-01</leafValues></_>
        <_>
          <internalNodes>
            0 -1 23 5.8933850377798080e-03</internalNodes>
          <leafValues>
            -4.1177758574485779e-01 8.7116950750350952e-01</leafValues></_>
        <_>
          <internalNodes>
            0 -1 33 2.9107700102031231e-03</internalNodes>
          <leafValues>
            -2.8994536399841309e-01 1.</leafValues></_></weakClassifiers></_></stages>
  <features>
    <_>
      <rects>
        <_>
          0 0 26 1 -1.</_>
        <_>
          13 0 13 1 2.</_></rects>
      <tilted>0</tilted></_>
    <_>
      <rects>
        <_>
          0 3 16 14 -1.</_>
        <_>
          8 3 8 14 2.</_></rects>
      <tilted>0</tilted></_>
    <_>
      <rects>
        <_>
          0 9 8 12 -1.</_>
        <_>
          0 13 8 4 3.</_></rects>
      <tilted>0</tilted></_>
    <_>
      <rects>
        <_>
          0 9 33 2 -1.</_>
        <_>
          11 9 11 2 3.</_></rects>
      <tilted>0</tilted></_>
    <_>
      <rects>
        <_>
          0 12 34 10 -1.</_>
        <_>
          0 12 17 5 2.</_>
        <_>
          17 17 17 5 2.</_></rects>
      <tilted>0</tilted></_>
    <_>
      <rects>
        <_>
          0 23 26 1 -1.</_>
        <_>
          13 23 13 1 2.</_></rects>
      <tilted>0</tilted></_>
    <_>
      <rects>
        <_>
          1 17 6 6 -1.</_>
        <_>
          1 20 6 3 2.</_></rects>
      <tilted>0</tilted></_>
    <_>
      <rects>
        <_>
          6 11 11 10 -1.</_>
        <_>
          6 16 11 5 2.</_></rects>
      <tilted>0</tilted></_>
    <_>
      <rects>
        <_>
          6 12 26 12 -1.</_>
        <_>
          6 12 13 6 2.</_>
        <_>
          19 18 13 6 2.</_></rects>
      <tilted>0</tilted></_>
    <_>
      <rects>
        <_>
          7 0 19 12 -1.</_>
        <_>
          7 6 19 6 2.</_></rects>
      <tilted>0</tilted></_>
    <_>
      <rects>
        <_>
          9 0 16 24 -1.</_>
        <_>
          17 0 8 24 2.</_></rects>
      <tilted>0</tilted></_>
    <_>
      <rects>
        <_>
          9 16 18 3 -1.</_>
        <_>
          9 17 18 1 3.</_></rects>
      <tilted>0</tilted></_>
    <_>
      <rects>
        <_>
          10 0 10 20 -1.</_>
        <_>
          15 0 5 20 2.</_></rects>
      <tilted>0</tilted></_>
    <_>
      <rects>
        <_>
          10 0 14 14 -1.</_>
        <_>
          10 0 7 7 2.</_>
        <_>
          17 7 7 7 2.</_></rects>
      <tilted>0</tilted></_>
    <_>
      <rects>
        <_>
          10 9 26 1 -1.</_>
        <_>
          23 9 13 1 2.</_></rects>
      <tilted>0</tilted></_>
    <_>
      <rects>
        <_>
          11 7 22 14 -1.</_>
        <_>
          11 7 11 7 2.</_>
        <_>
          22 14 11 7 2.</_></rects>
      <tilted>0</tilted></_>
    <_>
      <rects>
        <_>
          11 15 2 2 -1.</_>
        <_>
          11 16 2 1 2.</_></rects>
      <tilted>0</tilted></_>
    <_>
      <rects>
        <_>
          11 16 10 3 -1.</_>
        <_>
          11 17 10 1 3.</_></rects>
      <tilted>0</tilted></_>
    <_>
      <rects>
        <_>
          11 17 2 2 -1.</_>
        <_>
          11 17 1 1 2.</_>
        <_>
          12 18 1 1 2.</_></rects>
      <tilted>0</tilted></_>
    <_>
      <rects>
        <_>
          12 6 2 2 -1.</_>
        <_>
          12 6 1 1 2.</_>
        <_>
          13 7 1 1 2.</_></rects>
      <tilted>0</tilted></_>
    <_>
      <rects>
        <_>
          12 9 14 5 -1.</_>
        <_>
          19 9 7 5 2.</_></rects>
      <tilted>0</tilted></_>
    <_>
      <rects>
        <_>
          13 8 2 3 -1.</_>
        <_>
          13 9 2 1 3.</_></rects>
      <tilted>0</tilted></_>
    <_>
      <rects>
        <_>
          14 12 2 1 -1.</_>
        <_>
          15 12 1 1 2.</_></rects>
      <tilted>0</tilted></_>
    <_>
      <rects>
        <_>
          14 13 4 6 -1.</_>
        <_>
          14 15 4 2 3.</_></rects>
      <tilted>0</tilted></_>
    <_>
      <rects>
        <_>
          14 14 6 3 -1.</_>
        <_>
          14 15 6 1 3.</_></rects>
      <tilted>0</tilted></_>
    <_>
      <rects>
        <_>
          14 17 8 3 -1.</_>
        <_>
          14 18 8 1 3.</_></rects>
      <tilted>0</tilted></_>
    <_>
      <rects>
        <_>
          15 3 4 6 -1.</_>
        <_>
          15 5 4 2 3.</_></rects>
      <tilted>0</tilted></_>
    <_>
      <rects>
        <_>
          15 6 20 14 -1.</_>
        <_>
          25 6 10 14 2.</_></rects>
      <tilted>0</tilted></_>
    <_>
      <rects>
        <_>
          15 14 12 10 -1.</_>
        <_>
          21 14 6 10 2.</_></rects>
      <tilted>0</tilted></_>
    <_>
      <rects>
        <_>
          16 14 3 9 -1.</_>
        <_>
          16 17 3 3 3.</_></rects>
      <tilted>0</tilted></_>
    <_>
      <rects>
        <_>
          17 0 13 24 -1.</_>
        <_>
          17 8 13 8 3.</_></rects>
      <tilted>0</tilted></_>
    <_>
      <rects>
        <_>
          17 5 19 12 -1.</_>
        <_>
          17 9 19 4 3.</_></rects>
      <tilted>0</tilted></_>
    <_>
      <rects>
        <_>
          17 9 1 3 -1.</_>
        <_>
          17 10 1 1 3.</_></rects>
      <tilted>0</tilted></_>
    <_>
      <rects>
        <_>
          17 17 4 3 -1.</_>
        <_>
          17 18 4 1 3.</_></rects>
      <tilted>0</tilted></_>
    <_>
      <rects>
        <_>
          18 15 18 7 -1.</_>
        <_>
          24 15 6 7 3.</_></rects>
      <tilted>0</tilted></_>
    <_>
      <rects>
        <_>
          20 13 14 1 -1.</_>
        <_>
          27 13 7 1 2.</_></rects>
      <tilted>0</tilted></_>
    <_>
      <rects>
        <_>
          20 16 4 2 -1.</_>
        <_>
          20 16 2 1 2.</_>
        <_>
          22 17 2 1 2.</_></rects>
      <tilted>0</tilted></_>
    <_>
      <rects>
        <_>
          21 16 8 2 -1.</_>
        <_>
          21 16 4 1 2.</_>
        <_>
          25 17 4 1 2.</_></rects>
      <tilted>0</tilted></_>
    <_>
      <rects>
        <_>
          22 10 12 5 -1.</_>
        <_>
          28 10 6 5 2.</_></rects>
      <tilted>0</tilted></_>
    <_>
      <rects>
        <_>
          22 18 6 4 -1.</_>
        <_>
          22 20 6 2 2.</_></rects>
      <tilted>0</tilted></_>
    <_>
      <rects>
        <_>
          25 1 1 4 -1.</_>
        <_>
          25 3 1 2 2.</_></rects>
      <tilted>0</tilted></_>
    <_>
      <rects>
        <_>
          27 15 5 6 -1.</_>
        <_>
          27 18 5 3 2.</_></rects>
      <tilted>0</tilted></_>
    <_>
      <rects>
        <_>
          28 1 6 8 -1.</_>
        <_>
          28 1 3 4 2.</_>
        <_>
          31 5 3 4 2.</_></rects>
      <tilted>0</tilted></_>
    <_>
      <rects>
        <_>
          29 6 4 2 -1.</_>
        <_>
          29 7 4 1 2.</_></rects>
      <tilted>0</tilted></_>
    <_>
      <rects>
        <_>
          30 4 1 2 -1.</_>
        <_>
          30 5 1 1 2.</_></rects>
      <tilted>0</tilted></_>
    <_>
      <rects>
        <_>
          30 6 3 2 -1.</_>
        <_>
          30 7 3 1 2.</_></rects>
      <tilted>0</tilted></_>
    <_>
      <rects>
        <_>
          32 10 2 1 -1.</_>
        <_>
          33 10 1 1 2.</_></rects>
      <tilted>0</tilted></_></features></cascade>
</opencv_storage>
