<?xml version="1.0"?>
<opencv_storage>
<cascade>
  <stageType>BOOST</stageType>
  <featureType>HAAR</featureType>
  <height>24</height>
  <width>36</width>
  <stageParams>
    <boostType>GAB</boostType>
    <minHitRate>9.9500000476837158e-01</minHitRate>
    <maxFalseAlarm>5.0000000000000000e-01</maxFalseAlarm>
    <weightTrimRate>9.4999998807907104e-01</weightTrimRate>
    <maxDepth>1</maxDepth>
    <maxWeakCount>100</maxWeakCount></stageParams>
  <featureParams>
    <maxCatCount>0</maxCatCount>
    <featSize>1</featSize>
    <mode>BASIC</mode></featureParams>
  <stageNum>9</stageNum>
  <stages>
    <!-- stage 0 -->
    <_>
      <maxWeakCount>2</maxWeakCount>
      <stageThreshold>-1.9336974620819092e-01</stageThreshold>
      <weakClassifiers>
        <_>
          <internalNodes>
            0 -1 0 -4.3704032897949219e-01</internalNodes>
          <leafValues>
            9.4666665792465210e-01 -9.7333335876464844e-01</leafValues></_>
        <_>
          <internalNodes>
            0 -1 1 -2.2698691487312317e-01</internalNodes>
          <leafValues>
            7.7996361255645752e-01 -1.</leafValues></_></weakClassifiers></_>
    <!-- stage 1 -->
    <_>
      <maxWeakCount>3</maxWeakCount>
      <stageThreshold>-1.1145557165145874e+00</stageThreshold>
      <weakClassifiers>
        <_>
          <internalNodes>
            0 -1 3 -6.9625571370124817e-02</internalNodes>
          <leafValues>
            6.6292136907577515e-01 -9.8529410362243652e-01</leafValues></_>
        <_>
          <internalNodes>
            0 -1 7 -1.7838722094893456e-02</internalNodes>
          <leafValues>
            9.0785950422286987e-01 -7.7491021156311035e-01</leafValues></_>
        <_>
          <internalNodes>
            0 -1 17 6.3356295228004456e-02</internalNodes>
          <leafValues>
            -9.7468084096908569e-01 6.4564859867095947e-01</leafValues></_></weakClassifiers></_>
    <!-- stage 2 -->
    <_>
      <maxWeakCount>2</maxWeakCount>
      <stageThreshold>-1.7904071509838104e-01</stageThreshold>
      <weakClassifiers>
        <_>
          <internalNodes>
            0 -1 13 -1.3374080881476402e-02</internalNodes>
          <leafValues>
            7.5675678253173828e-01 -8.6754965782165527e-01</leafValues></_>
        <_>
          <internalNodes>
            0 -1 20 9.0608868049457669e-04</internalNodes>
          <leafValues>
            -8.8491326570510864e-01 6.8850892782211304e-01</leafValues></_></weakClassifiers></_>
    <!-- stage 3 -->
    <_>
      <maxWeakCount>2</maxWeakCount>
      <stageThreshold>-1.1666462570428848e-01</stageThreshold>
      <weakClassifiers>
        <_>
          <internalNodes>
            0 -1 8 -2.7180708944797516e-02</internalNodes>
          <leafValues>
            9.6078431606292725e-01 -7.1264368295669556e-01</leafValues></_>
        <_>
          <internalNodes>
            0 -1 9 -4.5164454728364944e-02</internalNodes>
          <leafValues>
            5.9597903490066528e-01 -9.8689872026443481e-01</leafValues></_></weakClassifiers></_>
    <!-- stage 4 -->
    <_>
      <maxWeakCount>3</maxWeakCount>
      <stageThreshold>-1.0885453224182129e+00</stageThreshold>
      <weakClassifiers>
        <_>
          <internalNodes>
            0 -1 11 -3.8281473517417908e-01</internalNodes>
          <leafValues>
            7.9487180709838867e-01 -9.3197280168533325e-01</leafValues></_>
        <_>
          <internalNodes>
            0 -1 18 -1.2769684195518494e-01</internalNodes>
          <leafValues>
            6.7900973558425903e-01 -8.8840669393539429e-01</leafValues></_>
        <_>
          <internalNodes>
            0 -1 10 5.4771229624748230e-03</internalNodes>
          <leafValues>
            -8.3558225631713867e-01 8.3350300788879395e-01</leafValues></_></weakClassifiers></_>
    <!-- stage 5 -->
    <_>
      <maxWeakCount>2</maxWeakCount>
      <stageThreshold>-1.7668442428112030e-01</stageThreshold>
      <weakClassifiers>
        <_>
          <internalNodes>
            0 -1 15 -8.4292758256196976e-03</internalNodes>
          <leafValues>
            8.9285713434219360e-01 -7.3964494466781616e-01</leafValues></_>
        <_>
          <internalNodes>
            0 -1 19 -3.0172839760780334e-02</internalNodes>
          <leafValues>
            5.6296056509017944e-01 -9.5912063121795654e-01</leafValues></_></weakClassifiers></_>
    <!-- stage 6 -->
    <_>
      <maxWeakCount>3</maxWeakCount>
      <stageThreshold>-1.0005477666854858e+00</stageThreshold>
      <weakClassifiers>
        <_>
          <internalNodes>
            0 -1 14 -2.1612102165818214e-02</internalNodes>
          <leafValues>
            8.9830505847930908e-01 -7.7108430862426758e-01</leafValues></_>
        <_>
          <internalNodes>
            0 -1 21 8.4647350013256073e-03</internalNodes>
          <leafValues>
            -8.6658453941345215e-01 5.6446897983551025e-01</leafValues></_>
        <_>
          <internalNodes>
            0 -1 6 -7.2786875069141388e-02</internalNodes>
          <leafValues>
            6.6790020465850830e-01 -7.9393237829208374e-01</leafValues></_></weakClassifiers></_>
    <!-- stage 7 -->
    <_>
      <maxWeakCount>2</maxWeakCount>
      <stageThreshold>-2.3058582842350006e-01</stageThreshold>
      <weakClassifiers>
        <_>
          <internalNodes>
            0 -1 12 -2.8677821159362793e-01</internalNodes>
          <leafValues>
            8.0952382087707520e-01 -7.7777779102325439e-01</leafValues></_>
        <_>
          <internalNodes>
            0 -1 16 -1.0803424083860591e-04</internalNodes>
          <leafValues>
            5.4719197750091553e-01 -8.5402303934097290e-01</leafValues></_></weakClassifiers></_>
    <!-- stage 8 -->
    <_>
      <maxWeakCount>3</maxWeakCount>
      <stageThreshold>-1.1666097640991211e+00</stageThreshold>
      <weakClassifiers>
        <_>
          <internalNodes>
            0 -1 2 -2.6641517877578735e-01</internalNodes>
          <leafValues>
            8.0246913433074951e-01 -9.7222220897674561e-01</leafValues></_>
        <_>
          <internalNodes>
            0 -1 4 -8.9642658829689026e-02</internalNodes>
          <leafValues>
            6.7793732881546021e-01 -8.1507825851440430e-01</leafValues></_>
        <_>
          <internalNodes>
            0 -1 5 4.0685310959815979e-02</internalNodes>
          <leafValues>
            -9.2939764261245728e-01 6.2069070339202881e-01</leafValues></_></weakClassifiers></_></stages>
  <features>
    <_>
      <rects>
        <_>
          0 0 32 24 -1.</_>
        <_>
          0 8 32 8 3.</_></rects>
      <tilted>0</tilted></_>
    <_>
      <rects>
        <_>
          0 0 36 14 -1.</_>
        <_>
          0 7 36 7 2.</_></rects>
      <tilted>0</tilted></_>
    <_>
      <rects>
        <_>
          0 1 30 21 -1.</_>
        <_>
          0 8 30 7 3.</_></rects>
      <tilted>0</tilted></_>
    <_>
      <rects>
        <_>
          1 6 14 12 -1.</_>
        <_>
          8 6 7 12 2.</_></rects>
      <tilted>0</tilted></_>
    <_>
      <rects>
        <_>
          2 2 24 22 -1.</_>
        <_>
          10 2 8 22 3.</_></rects>
      <tilted>0</tilted></_>
    <_>
      <rects>
        <_>
          2 10 16 14 -1.</_>
        <_>
          2 17 16 7 2.</_></rects>
      <tilted>0</tilted></_>
    <_>
      <rects>
        <_>
          3 0 16 13 -1.</_>
        <_>
          11 0 8 13 2.</_></rects>
      <tilted>0</tilted></_>
    <_>
      <rects>
        <_>
          4 4 16 4 -1.</_>
        <_>
          4 4 8 2 2.</_>
        <_>
          12 6 8 2 2.</_></rects>
      <tilted>0</tilted></_>
    <_>
      <rects>
        <_>
          4 9 12 4 -1.</_>
        <_>
          8 9 4 4 3.</_></rects>
      <tilted>0</tilted></_>
    <_>
      <rects>
        <_>
          4 15 20 7 -1.</_>
        <_>
          14 15 10 7 2.</_></rects>
      <tilted>0</tilted></_>
    <_>
      <rects>
        <_>
          5 7 14 4 -1.</_>
        <_>
          5 7 7 2 2.</_>
        <_>
          12 9 7 2 2.</_></rects>
      <tilted>0</tilted></_>
    <_>
      <rects>
        <_>
          6 2 27 21 -1.</_>
        <_>
          6 9 27 7 3.</_></rects>
      <tilted>0</tilted></_>
    <_>
      <rects>
        <_>
          8 1 26 12 -1.</_>
        <_>
          8 7 26 6 2.</_></rects>
      <tilted>0</tilted></_>
    <_>
      <rects>
        <_>
          8 2 12 6 -1.</_>
        <_>
          8 2 6 3 2.</_>
        <_>
          14 5 6 3 2.</_></rects>
      <tilted>0</tilted></_>
    <_>
      <rects>
        <_>
          11 4 4 6 -1.</_>
        <_>
          11 7 4 3 2.</_></rects>
      <tilted>0</tilted></_>
    <_>
      <rects>
        <_>
          17 6 12 4 -1.</_>
        <_>
          17 6 6 2 2.</_>
        <_>
          23 8 6 2 2.</_></rects>
      <tilted>0</tilted></_>
    <_>
      <rects>
        <_>
          18 12 5 6 -1.</_>
        <_>
          18 15 5 3 2.</_></rects>
      <tilted>0</tilted></_>
    <_>
      <rects>
        <_>
          20 14 13 10 -1.</_>
        <_>
          20 19 13 5 2.</_></rects>
      <tilted>0</tilted></_>
    <_>
      <rects>
        <_>
          22 5 14 18 -1.</_>
        <_>
          22 11 14 6 3.</_></rects>
      <tilted>0</tilted></_>
    <_>
      <rects>
        <_>
          23 9 13 12 -1.</_>
        <_>
          23 13 13 4 3.</_></rects>
      <tilted>0</tilted></_>
    <_>
      <rects>
        <_>
          27 0 2 20 -1.</_>
        <_>
          28 0 1 20 2.</_></rects>
      <tilted>0</tilted></_>
    <_>
      <rects>
        <_>
          27 5 6 11 -1.</_>
        <_>
          30 5 3 11 2.</_></rects>
      <tilted>0</tilted></_></features></cascade>
</opencv_storage>
